#pragma once
#include <cstdarg>
namespace Eloquent {
    namespace ML {
        namespace Port {
            class RandomForest {
                public:
                    /**
                    * Predict class for features vector
                    */
                    int predict(float *x) {
                        uint8_t votes[2] = { 0 };
                        // tree #1
                        if (x[0] <= 17.99751853942871) {
                            votes[0] += 1;
                        }

                        else {
                            if (x[0] <= 30.00337791442871) {
                                votes[1] += 1;
                            }

                            else {
                                if (x[0] <= 39.209224700927734) {
                                    if (x[0] <= 30.079893112182617) {
                                        votes[0] += 1;
                                    }

                                    else {
                                        if (x[2] <= 104.43841171264648) {
                                            votes[1] += 1;
                                        }

                                        else {
                                            votes[1] += 1;
                                        }
                                    }
                                }

                                else {
                                    if (x[0] <= 39.46597862243652) {
                                        votes[0] += 1;
                                    }

                                    else {
                                        if (x[2] <= 291.51121520996094) {
                                            votes[0] += 1;
                                        }

                                        else {
                                            votes[1] += 1;
                                        }
                                    }
                                }
                            }
                        }

                        // tree #2
                        if (x[0] <= 18.000906944274902) {
                            votes[0] += 1;
                        }

                        else {
                            if (x[2] <= 533.2621765136719) {
                                if (x[2] <= 92.92588806152344) {
                                    if (x[0] <= 35.451751708984375) {
                                        if (x[2] <= 69.79001235961914) {
                                            votes[1] += 1;
                                        }

                                        else {
                                            votes[1] += 1;
                                        }
                                    }

                                    else {
                                        if (x[1] <= 76.02840423583984) {
                                            votes[1] += 1;
                                        }

                                        else {
                                            votes[0] += 1;
                                        }
                                    }
                                }

                                else {
                                    if (x[2] <= 93.5875473022461) {
                                        votes[0] += 1;
                                    }

                                    else {
                                        if (x[1] <= 71.13673400878906) {
                                            votes[1] += 1;
                                        }

                                        else {
                                            votes[1] += 1;
                                        }
                                    }
                                }
                            }

                            else {
                                if (x[0] <= 30.762022972106934) {
                                    if (x[1] <= 88.48787307739258) {
                                        votes[1] += 1;
                                    }

                                    else {
                                        if (x[1] <= 88.8049545288086) {
                                            votes[0] += 1;
                                        }

                                        else {
                                            votes[1] += 1;
                                        }
                                    }
                                }

                                else {
                                    if (x[0] <= 31.028281211853027) {
                                        votes[0] += 1;
                                    }

                                    else {
                                        if (x[1] <= 70.30704116821289) {
                                            votes[1] += 1;
                                        }

                                        else {
                                            votes[0] += 1;
                                        }
                                    }
                                }
                            }
                        }

                        // tree #3
                        if (x[1] <= 70.5474967956543) {
                            if (x[0] <= 17.98781394958496) {
                                votes[0] += 1;
                            }

                            else {
                                votes[1] += 1;
                            }
                        }

                        else {
                            if (x[0] <= 29.993897438049316) {
                                if (x[2] <= 838.540771484375) {
                                    if (x[2] <= 820.9708862304688) {
                                        if (x[2] <= 22.805169105529785) {
                                            votes[0] += 1;
                                        }

                                        else {
                                            votes[1] += 1;
                                        }
                                    }

                                    else {
                                        votes[0] += 1;
                                    }
                                }

                                else {
                                    votes[1] += 1;
                                }
                            }

                            else {
                                votes[0] += 1;
                            }
                        }

                        // tree #4
                        if (x[1] <= 67.73072814941406) {
                            if (x[0] <= 18.09951400756836) {
                                votes[0] += 1;
                            }

                            else {
                                votes[1] += 1;
                            }
                        }

                        else {
                            if (x[0] <= 29.93541717529297) {
                                if (x[1] <= 67.92668533325195) {
                                    votes[0] += 1;
                                }

                                else {
                                    if (x[2] <= 22.063517570495605) {
                                        votes[0] += 1;
                                    }

                                    else {
                                        if (x[2] <= 117.92971420288086) {
                                            votes[1] += 1;
                                        }

                                        else {
                                            votes[1] += 1;
                                        }
                                    }
                                }
                            }

                            else {
                                if (x[1] <= 69.82930374145508) {
                                    votes[1] += 1;
                                }

                                else {
                                    votes[0] += 1;
                                }
                            }
                        }

                        // tree #5
                        if (x[1] <= 70.37865447998047) {
                            if (x[1] <= 21.65317440032959) {
                                votes[1] += 1;
                            }

                            else {
                                if (x[2] <= 1004.1397399902344) {
                                    if (x[2] <= 79.55659103393555) {
                                        if (x[0] <= 17.953497886657715) {
                                            votes[0] += 1;
                                        }

                                        else {
                                            votes[1] += 1;
                                        }
                                    }

                                    else {
                                        if (x[1] <= 21.715872764587402) {
                                            votes[0] += 1;
                                        }

                                        else {
                                            votes[1] += 1;
                                        }
                                    }
                                }

                                else {
                                    if (x[1] <= 31.03820037841797) {
                                        votes[0] += 1;
                                    }

                                    else {
                                        if (x[1] <= 53.623151779174805) {
                                            votes[1] += 1;
                                        }

                                        else {
                                            votes[0] += 1;
                                        }
                                    }
                                }
                            }
                        }

                        else {
                            if (x[1] <= 74.08853530883789) {
                                if (x[1] <= 71.02853775024414) {
                                    if (x[2] <= 781.9998168945312) {
                                        votes[0] += 1;
                                    }

                                    else {
                                        if (x[1] <= 70.83935546875) {
                                            votes[1] += 1;
                                        }

                                        else {
                                            votes[1] += 1;
                                        }
                                    }
                                }

                                else {
                                    if (x[1] <= 71.93866348266602) {
                                        if (x[0] <= 28.447131156921387) {
                                            votes[0] += 1;
                                        }

                                        else {
                                            votes[0] += 1;
                                        }
                                    }

                                    else {
                                        if (x[2] <= 299.6270446777344) {
                                            votes[0] += 1;
                                        }

                                        else {
                                            votes[1] += 1;
                                        }
                                    }
                                }
                            }

                            else {
                                if (x[2] <= 463.1165466308594) {
                                    if (x[0] <= 30.306156158447266) {
                                        if (x[2] <= 260.26300048828125) {
                                            votes[1] += 1;
                                        }

                                        else {
                                            votes[1] += 1;
                                        }
                                    }

                                    else {
                                        votes[0] += 1;
                                    }
                                }

                                else {
                                    if (x[2] <= 501.82752990722656) {
                                        if (x[2] <= 473.90126037597656) {
                                            votes[0] += 1;
                                        }

                                        else {
                                            votes[0] += 1;
                                        }
                                    }

                                    else {
                                        if (x[1] <= 76.05260467529297) {
                                            votes[1] += 1;
                                        }

                                        else {
                                            votes[0] += 1;
                                        }
                                    }
                                }
                            }
                        }

                        // tree #6
                        if (x[2] <= 1018.6633605957031) {
                            if (x[1] <= 70.37865447998047) {
                                if (x[2] <= 917.5679016113281) {
                                    if (x[1] <= 20.638242721557617) {
                                        if (x[1] <= 20.59080219268799) {
                                            votes[1] += 1;
                                        }

                                        else {
                                            votes[0] += 1;
                                        }
                                    }

                                    else {
                                        if (x[0] <= 17.98781394958496) {
                                            votes[0] += 1;
                                        }

                                        else {
                                            votes[1] += 1;
                                        }
                                    }
                                }

                                else {
                                    if (x[1] <= 67.7582778930664) {
                                        if (x[0] <= 18.542365074157715) {
                                            votes[0] += 1;
                                        }

                                        else {
                                            votes[1] += 1;
                                        }
                                    }

                                    else {
                                        votes[0] += 1;
                                    }
                                }
                            }

                            else {
                                if (x[2] <= 117.92971420288086) {
                                    if (x[2] <= 3.1729297041893005) {
                                        votes[0] += 1;
                                    }

                                    else {
                                        if (x[2] <= 17.156906604766846) {
                                            votes[1] += 1;
                                        }

                                        else {
                                            votes[1] += 1;
                                        }
                                    }
                                }

                                else {
                                    if (x[2] <= 189.3638153076172) {
                                        if (x[0] <= 29.202330589294434) {
                                            votes[1] += 1;
                                        }

                                        else {
                                            votes[0] += 1;
                                        }
                                    }

                                    else {
                                        if (x[2] <= 552.2733459472656) {
                                            votes[1] += 1;
                                        }

                                        else {
                                            votes[0] += 1;
                                        }
                                    }
                                }
                            }
                        }

                        else {
                            votes[0] += 1;
                        }

                        // tree #7
                        if (x[1] <= 70.8216438293457) {
                            if (x[1] <= 55.29086112976074) {
                                if (x[0] <= 18.098889350891113) {
                                    votes[0] += 1;
                                }

                                else {
                                    votes[1] += 1;
                                }
                            }

                            else {
                                if (x[2] <= 919.1120910644531) {
                                    if (x[1] <= 55.85598945617676) {
                                        if (x[1] <= 55.784162521362305) {
                                            votes[0] += 1;
                                        }

                                        else {
                                            votes[0] += 1;
                                        }
                                    }

                                    else {
                                        if (x[1] <= 64.83308410644531) {
                                            votes[1] += 1;
                                        }

                                        else {
                                            votes[1] += 1;
                                        }
                                    }
                                }

                                else {
                                    if (x[1] <= 65.89010238647461) {
                                        if (x[1] <= 63.23489952087402) {
                                            votes[1] += 1;
                                        }

                                        else {
                                            votes[0] += 1;
                                        }
                                    }

                                    else {
                                        votes[1] += 1;
                                    }
                                }
                            }
                        }

                        else {
                            if (x[2] <= 1007.8646545410156) {
                                if (x[1] <= 71.93866348266602) {
                                    if (x[0] <= 26.21984577178955) {
                                        votes[1] += 1;
                                    }

                                    else {
                                        votes[0] += 1;
                                    }
                                }

                                else {
                                    if (x[2] <= 799.6346435546875) {
                                        if (x[2] <= 742.9847717285156) {
                                            votes[0] += 1;
                                        }

                                        else {
                                            votes[1] += 1;
                                        }
                                    }

                                    else {
                                        if (x[0] <= 29.660407066345215) {
                                            votes[1] += 1;
                                        }

                                        else {
                                            votes[0] += 1;
                                        }
                                    }
                                }
                            }

                            else {
                                votes[1] += 1;
                            }
                        }

                        // tree #8
                        if (x[1] <= 69.51142883300781) {
                            if (x[1] <= 52.53356742858887) {
                                if (x[0] <= 17.98781394958496) {
                                    votes[0] += 1;
                                }

                                else {
                                    votes[1] += 1;
                                }
                            }

                            else {
                                if (x[0] <= 17.936800003051758) {
                                    votes[0] += 1;
                                }

                                else {
                                    votes[1] += 1;
                                }
                            }
                        }

                        else {
                            if (x[2] <= 37.56686782836914) {
                                if (x[1] <= 79.69620895385742) {
                                    votes[1] += 1;
                                }

                                else {
                                    if (x[2] <= 8.097492933273315) {
                                        votes[0] += 1;
                                    }

                                    else {
                                        votes[1] += 1;
                                    }
                                }
                            }

                            else {
                                if (x[1] <= 89.75397872924805) {
                                    if (x[1] <= 87.64655303955078) {
                                        if (x[0] <= 29.993897438049316) {
                                            votes[1] += 1;
                                        }

                                        else {
                                            votes[0] += 1;
                                        }
                                    }

                                    else {
                                        if (x[0] <= 29.30785083770752) {
                                            votes[1] += 1;
                                        }

                                        else {
                                            votes[0] += 1;
                                        }
                                    }
                                }

                                else {
                                    votes[0] += 1;
                                }
                            }
                        }

                        // tree #9
                        if (x[0] <= 18.00529670715332) {
                            votes[0] += 1;
                        }

                        else {
                            if (x[1] <= 70.5474967956543) {
                                votes[1] += 1;
                            }

                            else {
                                if (x[2] <= 8.097492933273315) {
                                    votes[0] += 1;
                                }

                                else {
                                    if (x[0] <= 29.833946228027344) {
                                        votes[1] += 1;
                                    }

                                    else {
                                        votes[0] += 1;
                                    }
                                }
                            }
                        }

                        // tree #10
                        if (x[1] <= 69.54447555541992) {
                            if (x[2] <= 919.1661071777344) {
                                if (x[2] <= 825.57958984375) {
                                    if (x[2] <= 818.8551635742188) {
                                        if (x[2] <= 777.7618408203125) {
                                            votes[1] += 1;
                                        }

                                        else {
                                            votes[1] += 1;
                                        }
                                    }

                                    else {
                                        if (x[1] <= 26.01024055480957) {
                                            votes[1] += 1;
                                        }

                                        else {
                                            votes[0] += 1;
                                        }
                                    }
                                }

                                else {
                                    votes[1] += 1;
                                }
                            }

                            else {
                                if (x[1] <= 24.228595733642578) {
                                    votes[1] += 1;
                                }

                                else {
                                    if (x[0] <= 18.542365074157715) {
                                        votes[0] += 1;
                                    }

                                    else {
                                        votes[1] += 1;
                                    }
                                }
                            }
                        }

                        else {
                            if (x[2] <= 119.75170135498047) {
                                if (x[0] <= 30.306156158447266) {
                                    votes[1] += 1;
                                }

                                else {
                                    votes[0] += 1;
                                }
                            }

                            else {
                                if (x[1] <= 89.2766227722168) {
                                    if (x[0] <= 30.07243824005127) {
                                        if (x[0] <= 18.031436920166016) {
                                            votes[0] += 1;
                                        }

                                        else {
                                            votes[1] += 1;
                                        }
                                    }

                                    else {
                                        if (x[1] <= 70.19432067871094) {
                                            votes[1] += 1;
                                        }

                                        else {
                                            votes[0] += 1;
                                        }
                                    }
                                }

                                else {
                                    votes[0] += 1;
                                }
                            }
                        }

                        // return argmax of votes
                        uint8_t classIdx = 0;
                        float maxVotes = votes[0];

                        for (uint8_t i = 1; i < 2; i++) {
                            if (votes[i] > maxVotes) {
                                classIdx = i;
                                maxVotes = votes[i];
                            }
                        }

                        return classIdx;
                    }

                protected:
                };
            }
        }
    }
